1305031453.359684 0.000000 0.000000 0.000000 0.000000 0.000000 0.000000 1.000000
1305031453.391690 -0.001106 0.001071 -0.009641 -0.001643 0.007287 0.010666 0.999915
1305031453.423683 0.004284 0.003412 -0.017454 0.000077 0.010543 0.019865 0.999747
1305031453.459685 0.009782 0.008659 -0.027710 0.004861 0.015841 0.028770 0.999449
1305031453.491698 0.009824 0.012694 -0.039015 0.009434 0.023127 0.038576 0.998943
1305031453.523684 0.008981 0.017782 -0.052276 0.016881 0.028455 0.047060 0.998344
1305031453.559753 0.009988 0.023041 -0.066154 0.024624 0.030647 0.053556 0.997791
1305031453.591640 0.008382 0.031792 -0.081391 0.033544 0.033473 0.057688 0.997209
1305031453.627706 -0.000464 0.036523 -0.096409 0.040647 0.036209 0.061038 0.996650
1305031453.659600 -0.007570 0.045845 -0.112507 0.049806 0.032622 0.058833 0.996491
1305031453.691678 -0.012133 0.058716 -0.127880 0.058597 0.026651 0.054487 0.996437
1305031453.727652 -0.020526 0.067710 -0.142866 0.063562 0.021600 0.049316 0.996525
1305031453.759694 -0.033426 0.072952 -0.155851 0.068164 0.014122 0.041115 0.996727
1305031453.791716 -0.036026 0.084432 -0.169591 0.074181 0.002559 0.033489 0.996679
1305031453.827773 -0.047389 0.090421 -0.181538 0.076868 -0.004443 0.026698 0.996674
1305031453.859705 -0.063912 0.098883 -0.193094 0.079563 -0.015613 0.018828 0.996530
1305031453.891710 -0.075713 0.106425 -0.204331 0.079625 -0.032025 0.011544 0.996243
1305031453.927723 -0.087393 0.110480 -0.212163 0.076944 -0.050999 0.006870 0.995706
1305031453.959641 -0.088791 0.113851 -0.220142 0.074401 -0.070939 -0.001412 0.994701
1305031453.991624 -0.098542 0.112044 -0.222492 0.072070 -0.083773 -0.012558 0.993796
1305031454.027662 -0.110412 0.113783 -0.229034 0.074404 -0.096303 -0.022701 0.992308
1305031454.059654 -0.119078 0.120150 -0.233613 0.076541 -0.109211 -0.034648 0.990461
1305031454.091651 -0.134791 0.118907 -0.234980 0.076447 -0.120105 -0.048688 0.988615
1305031454.127701 -0.150842 0.120854 -0.239682 0.080142 -0.133181 -0.063045 0.985832
1305031454.159672 -0.163607 0.128128 -0.243514 0.082315 -0.148162 -0.075873 0.982607
1305031454.191658 -0.176565 0.129958 -0.242967 0.080547 -0.164961 -0.090614 0.978820
1305031454.227671 -0.188162 0.120067 -0.241614 0.080298 -0.182903 -0.109044 0.973760
1305031454.259627 -0.191429 0.125531 -0.240858 0.087554 -0.198144 -0.124577 0.968274
1305031454.291639 -0.200532 0.132631 -0.241736 0.087492 -0.205379 -0.136201 0.965201
1305031454.327699 -0.216030 0.124550 -0.245462 0.086647 -0.214839 -0.152749 0.960731
1305031454.359636 -0.222051 0.128602 -0.246626 0.094037 -0.227152 -0.167166 0.954785
1305031454.391677 -0.231324 0.136766 -0.249811 0.097029 -0.234040 -0.179065 0.950656
1305031454.427465 -0.242574 0.139623 -0.252502 0.099097 -0.246213 -0.194745 0.944263
1305031454.459913 -0.241456 0.142770 -0.249954 0.102753 -0.258765 -0.210018 0.937217
1305031454.491617 -0.248253 0.149058 -0.252189 0.105696 -0.263096 -0.226279 0.931884
1305031454.527700 -0.252280 0.159016 -0.253565 0.107127 -0.269245 -0.241656 0.926085
1305031454.559575 -0.259291 0.167844 -0.256586 0.105493 -0.274132 -0.254794 0.921305
1305031454.591635 -0.267446 0.174564 -0.259005 0.103706 -0.283812 -0.272416 0.913502
1305031454.627580 -0.268341 0.180309 -0.260121 0.102601 -0.297413 -0.285371 0.905308
1305031454.659528 -0.267105 0.190814 -0.261651 0.098006 -0.310014 -0.292131 0.899414
1305031454.691884 -0.268911 0.195725 -0.260575 0.091394 -0.324606 -0.299765 0.892423
1305031454.727659 -0.263516 0.197891 -0.257055 0.086882 -0.339717 -0.303971 0.885802
1305031454.759732 -0.255297 0.201635 -0.255314 0.080545 -0.347773 -0.299658 0.884744
1305031454.791641 -0.250418 0.207101 -0.254739 0.075444 -0.351643 -0.292696 0.885994
1305031454.827570 -0.241967 0.215836 -0.251993 0.071534 -0.354526 -0.285902 0.887386
1305031454.859620 -0.237846 0.221074 -0.250279 0.065177 -0.352625 -0.279017 0.890818
1305031454.891764 -0.234380 0.229203 -0.250790 0.061682 -0.348200 -0.271851 0.895014
1305031454.927567 -0.232698 0.238970 -0.253193 0.058357 -0.342433 -0.265716 0.899294
1305031454.959648 -0.234314 0.247782 -0.257923 0.054889 -0.336527 -0.259766 0.903470
1305031454.991937 -0.239195 0.257071 -0.264679 0.052346 -0.332385 -0.254423 0.906669
1305031455.027799 -0.238941 0.269793 -0.268188 0.053036 -0.332066 -0.251028 0.907692
1305031455.059636 -0.243498 0.277065 -0.271539 0.051556 -0.329078 -0.249107 0.909393
1305031455.091700 -0.248564 0.286637 -0.277338 0.054445 -0.325325 -0.248305 0.910793
1305031455.127695 -0.253897 0.299615 -0.283669 0.056817 -0.320162 -0.246430 0.912984
1305031455.159720 -0.263228 0.309904 -0.291446 0.055912 -0.314763 -0.242338 0.916008
1305031455.191655 -0.273255 0.318756 -0.296843 0.052391 -0.310903 -0.236863 0.918962
1305031455.227581 -0.282860 0.325526 -0.302988 0.051617 -0.307604 -0.231219 0.921549
1305031455.259631 -0.288990 0.340313 -0.308981 0.050664 -0.302918 -0.224543 0.924800
1305031455.291831 -0.303218 0.344783 -0.315674 0.041275 -0.296361 -0.215928 0.929431
1305031455.327766 -0.314988 0.355406 -0.326133 0.036094 -0.292698 -0.205610 0.933140
1305031455.359630 -0.321142 0.365476 -0.329694 0.028557 -0.291554 -0.199710 0.935038
1305031455.391665 -0.333545 0.366325 -0.334192 0.016904 -0.284135 -0.192208 0.939169
1305031455.427642 -0.348565 0.371302 -0.343658 0.009290 -0.276113 -0.182623 0.943570
1305031455.459589 -0.363650 0.371816 -0.352763 0.003437 -0.271733 -0.174562 0.946402
1305031455.491637 -0.376060 0.377496 -0.362989 -0.000881 -0.267536 -0.163848 0.949515
1305031455.527610 -0.395041 0.375479 -0.374601 -0.007608 -0.262635 -0.151328 0.952924
1305031455.559669 -0.413118 0.378246 -0.388825 -0.010038 -0.261739 -0.138225 0.955137
1305031455.591645 -0.425557 0.384643 -0.401957 -0.011993 -0.262606 -0.123915 0.956838
1305031455.627617 -0.441301 0.379398 -0.408457 -0.019142 -0.261712 -0.111562 0.958485
1305031455.659615 -0.457617 0.377151 -0.421459 -0.016545 -0.259269 -0.105948 0.959834
1305031455.691605 -0.472169 0.379693 -0.435805 -0.011635 -0.257074 -0.106668 0.960416
1305031455.727628 -0.486130 0.377894 -0.448443 -0.008958 -0.253577 -0.111164 0.960865
1305031455.759683 -0.500586 0.377308 -0.462828 -0.006686 -0.247337 -0.113987 0.962178
1305031455.791666 -0.517220 0.368760 -0.478184 -0.006077 -0.241149 -0.113143 0.963851
1305031455.827590 -0.532311 0.368636 -0.496579 -0.002210 -0.236648 -0.112511 0.965057
1305031455.859526 -0.544663 0.364177 -0.510343 -0.002021 -0.234619 -0.113678 0.965415
1305031455.891657 -0.555369 0.361193 -0.523842 -0.001435 -0.231754 -0.113740 0.966101
1305031455.927955 -0.566685 0.355705 -0.535584 -0.002342 -0.228103 -0.114580 0.966869
1305031455.959716 -0.577310 0.356510 -0.549146 -0.000125 -0.223841 -0.116637 0.967621
1305031455.991694 -0.586749 0.353964 -0.559504 -0.001738 -0.219130 -0.118943 0.968417
1305031456.027770 -0.596384 0.359858 -0.572172 -0.003717 -0.211883 -0.123131 0.969500
1305031456.059713 -0.611644 0.349946 -0.580074 -0.014093 -0.205281 -0.131765 0.969690
1305031456.091707 -0.624700 0.339818 -0.585967 -0.020327 -0.200523 -0.136996 0.969850
1305031456.127645 -0.636634 0.333523 -0.593460 -0.021606 -0.195659 -0.138336 0.970625
1305031456.159731 -0.646452 0.322530 -0.596163 -0.023814 -0.190714 -0.138658 0.971512
1305031456.191658 -0.656868 0.314943 -0.601461 -0.018746 -0.182682 -0.135605 0.973595
1305031456.227678 -0.664562 0.322016 -0.608411 -0.012309 -0.172562 -0.131653 0.976083
1305031456.259614 -0.677759 0.313805 -0.607747 -0.014308 -0.161060 -0.129002 0.978373
1305031456.291675 -0.692672 0.306112 -0.608673 -0.012105 -0.149440 -0.123941 0.980897
1305031456.327718 -0.704542 0.299500 -0.608312 -0.008236 -0.139148 -0.116716 0.983335
1305031456.359846 -0.712337 0.307016 -0.610735 -0.001169 -0.127825 -0.110655 0.985604
1305031456.391619 -0.729592 0.294491 -0.603998 -0.002757 -0.114489 -0.106586 0.987686
1305031456.427662 -0.749976 0.298821 -0.602824 0.005937 -0.101787 -0.099419 0.989808
1305031456.459610 -0.770189 0.314449 -0.601001 0.010350 -0.094203 -0.092842 0.991160
1305031456.491677 -0.789775 0.315405 -0.595314 0.003974 -0.092390 -0.087741 0.991842
1305031456.527641 -0.804110 0.313894 -0.587744 -0.002604 -0.093873 -0.082749 0.992136
1305031456.559608 -0.815863 0.300180 -0.577892 -0.009229 -0.094381 -0.078380 0.992403
1305031456.591651 -0.825527 0.315937 -0.573319 -0.004252 -0.090924 -0.071395 0.993286
1305031456.627612 -0.840030 0.323599 -0.566167 -0.016171 -0.084196 -0.066490 0.994097
1305031456.659665 -0.857309 0.303959 -0.550990 -0.032653 -0.078884 -0.061493 0.994449
1305031456.691612 -0.874364 0.305793 -0.545140 -0.030342 -0.074326 -0.051324 0.995450
1305031456.727693 -0.892790 0.320749 -0.539127 -0.031971 -0.071691 -0.041885 0.996034
1305031456.759615 -0.913736 0.307176 -0.526043 -0.042043 -0.073857 -0.036301 0.995721
1305031456.791649 -0.927082 0.310367 -0.519011 -0.036713 -0.081708 -0.028429 0.995574
1305031456.827603 -0.932881 0.327383 -0.510677 -0.034234 -0.087366 -0.019472 0.995397
1305031456.859634 -0.944243 0.323930 -0.499561 -0.042653 -0.086811 -0.013494 0.995220
1305031456.891672 -0.953996 0.316024 -0.488819 -0.047226 -0.085260 -0.009286 0.995196
1305031456.927690 -0.967287 0.322353 -0.483097 -0.040851 -0.079408 -0.002659 0.996001
1305031456.959667 -0.981515 0.338230 -0.479474 -0.038885 -0.073010 0.002623 0.996569
1305031456.991709 -0.996782 0.333329 -0.472776 -0.048518 -0.067466 0.004190 0.996532
1305031457.027648 -1.009836 0.333700 -0.469620 -0.049850 -0.063137 0.007983 0.996727
1305031457.059621 -1.021634 0.344547 -0.469649 -0.050914 -0.058301 0.013860 0.996904
1305031457.091655 -1.034569 0.338696 -0.467946 -0.061835 -0.052354 0.017112 0.996565
1305031457.127632 -1.046748 0.330035 -0.468134 -0.066664 -0.045947 0.021084 0.996494
1305031457.159693 -1.059398 0.329903 -0.473037 -0.064897 -0.038484 0.028268 0.996749
1305031457.191735 -1.073170 0.334325 -0.480300 -0.062566 -0.030417 0.034689 0.996974
1305031457.227543 -1.087462 0.329532 -0.485585 -0.067513 -0.022971 0.040292 0.996640
1305031457.259691 -1.099064 0.315050 -0.490503 -0.068927 -0.016611 0.046224 0.996412
1305031457.291656 -1.112280 0.319364 -0.502606 -0.058589 -0.007954 0.053537 0.996814
1305031457.327548 -1.126227 0.323341 -0.514135 -0.054423 0.002526 0.059089 0.996765
1305031457.359712 -1.139764 0.314910 -0.522479 -0.056499 0.013731 0.064474 0.996224
1305031457.391684 -1.157158 0.309262 -0.534222 -0.051102 0.026440 0.072727 0.995691
1305031457.427641 -1.178463 0.309903 -0.546601 -0.046983 0.036679 0.080273 0.994989
1305031457.459614 -1.195973 0.303553 -0.557678 -0.047241 0.040903 0.085142 0.994407
1305031457.491705 -1.207862 0.292980 -0.568183 -0.047540 0.042258 0.088820 0.994015
1305031457.527638 -1.219685 0.286128 -0.580582 -0.043697 0.045314 0.092366 0.993733
1305031457.559685 -1.233507 0.281864 -0.592546 -0.039570 0.050435 0.096540 0.993263
1305031457.591678 -1.251947 0.281404 -0.603764 -0.035141 0.056072 0.100377 0.992747
1305031457.627526 -1.266771 0.269202 -0.611140 -0.036336 0.058838 0.103014 0.992273
1305031457.659632 -1.282447 0.274024 -0.622836 -0.030122 0.060925 0.107672 0.991861
1305031457.691570 -1.296779 0.266614 -0.629658 -0.035794 0.061507 0.109981 0.991383
1305031457.727669 -1.307144 0.246258 -0.634954 -0.040349 0.062212 0.108780 0.991296
1305031457.759556 -1.319937 0.234792 -0.642584 -0.037717 0.064485 0.107396 0.991406
1305031457.791567 -1.326383 0.217758 -0.650132 -0.031742 0.067621 0.107018 0.991447
1305031457.827699 -1.340448 0.222030 -0.661426 -0.018545 0.075567 0.108197 0.991080
1305031457.859623 -1.354912 0.212767 -0.667633 -0.016231 0.084342 0.108885 0.990337
1305031457.891593 -1.371941 0.188253 -0.670904 -0.012079 0.093487 0.109413 0.989517
1305031457.927633 -1.393491 0.187373 -0.676486 0.003102 0.099637 0.113865 0.988483
1305031457.959632 -1.409285 0.186415 -0.680606 0.011222 0.100889 0.118245 0.987782
1305031457.991644 -1.419899 0.170823 -0.681546 0.015021 0.101417 0.119300 0.987551
1305031458.027845 -1.431850 0.159251 -0.681464 0.023769 0.105109 0.120336 0.986867
1305031458.059689 -1.450139 0.167246 -0.680618 0.035774 0.110870 0.123279 0.985510
1305031458.091690 -1.467266 0.166278 -0.675596 0.036708 0.115953 0.125385 0.984625
1305031458.127605 -1.485056 0.152710 -0.667617 0.034064 0.121149 0.125761 0.984046
1305031458.159638 -1.506097 0.141002 -0.658442 0.035165 0.125617 0.127539 0.983218
1305031458.191646 -1.528938 0.144717 -0.648394 0.037830 0.127205 0.131505 0.982392
1305031458.227611 -1.544857 0.135506 -0.635992 0.029904 0.124903 0.132134 0.982876
1305031458.259934 -1.559057 0.097588 -0.620020 0.021366 0.123433 0.129706 0.983608
1305031458.291664 -1.581698 0.096586 -0.609395 0.032711 0.121137 0.129110 0.983660
1305031458.327628 -1.596825 0.090576 -0.595093 0.035000 0.115746 0.130978 0.983983
1305031458.359590 -1.607123 0.067417 -0.579740 0.039786 0.111470 0.132325 0.984115
1305031458.391626 -1.621108 0.073200 -0.566696 0.055306 0.108908 0.135140 0.983269
1305031458.427598 -1.627786 0.070564 -0.551637 0.063818 0.107872 0.143609 0.981666
1305031458.459637 -1.623541 0.055445 -0.537346 0.073577 0.110412 0.151427 0.979523
1305031458.491696 -1.631451 0.051002 -0.521194 0.095510 0.121755 0.150607 0.976407
1305031458.527737 -1.649044 0.074601 -0.500786 0.120207 0.133736 0.148527 0.972422
1305031458.559628 -1.658181 0.077781 -0.479994 0.128998 0.143562 0.146623 0.970181
1305031458.591641 -1.673799 0.077921 -0.456961 0.139877 0.152054 0.140798 0.968241
1305031458.627659 -1.688283 0.106150 -0.430560 0.149618 0.153436 0.135831 0.967275
1305031458.659623 -1.704245 0.101401 -0.407089 0.142929 0.151747 0.135562 0.968590
1305031458.691674 -1.707172 0.102927 -0.384573 0.138819 0.135633 0.128184 0.972575
1305031458.727650 -1.700090 0.093618 -0.364408 0.136629 0.118824 0.119081 0.976234
1305031458.759945 -1.705483 0.098302 -0.346936 0.144809 0.104087 0.107025 0.978132
1305031458.791632 -1.699847 0.111786 -0.333101 0.147182 0.084913 0.096607 0.980711
1305031458.827564 -1.693417 0.107711 -0.319243 0.140641 0.073595 0.093333 0.982900
1305031458.859887 -1.688817 0.091763 -0.310456 0.139175 0.067485 0.091063 0.983760
1305031458.891665 -1.687811 0.097682 -0.301734 0.147840 0.068030 0.082726 0.983195
1305031458.927621 -1.700585 0.102302 -0.293907 0.147796 0.076113 0.088571 0.982099
1305031458.959617 -1.708552 0.091495 -0.285237 0.138709 0.082051 0.101917 0.981652
1305031458.991647 -1.723790 0.058549 -0.281944 0.134346 0.088383 0.106302 0.981244
1305031459.027665 -1.749413 0.051295 -0.275206 0.145529 0.089522 0.105959 0.979581
1305031459.059631 -1.772478 0.037960 -0.268424 0.152992 0.083424 0.115302 0.977926
1305031459.091650 -1.800084 0.020555 -0.259357 0.163510 0.070070 0.125476 0.976018
1305031459.127618 -1.819841 0.014387 -0.250045 0.176801 0.046007 0.127997 0.974803
1305031459.159639 -1.832081 0.011204 -0.241344 0.186779 0.020177 0.127987 0.973820
1305031459.191674 -1.843743 0.011101 -0.231756 0.193748 0.000596 0.132818 0.972019
1305031459.227607 -1.853512 0.011419 -0.221317 0.196768 -0.013322 0.142381 0.969965
1305031459.259760 -1.854728 0.015269 -0.209030 0.197266 -0.019619 0.152422 0.968230
1305031459.291690 -1.859318 0.018072 -0.199556 0.194649 -0.009687 0.166711 0.966553
1305031459.327632 -1.865341 0.015353 -0.190314 0.191779 0.008273 0.184518 0.963901
1305031459.359651 -1.879826 0.021576 -0.181425 0.196237 0.032686 0.206258 0.958061
1305031459.391667 -1.897672 0.045329 -0.166061 0.196919 0.058706 0.231942 0.950778
1305031459.427646 -1.895937 0.048072 -0.153945 0.182665 0.087345 0.269958 0.941343
1305031459.459679 -1.918060 0.042717 -0.154079 0.177017 0.124035 0.310525 0.925664
1305031459.491555 -1.947277 0.053731 -0.144806 0.173260 0.148471 0.342104 0.911538
1305031459.527594 -1.953648 0.054945 -0.139016 0.158519 0.163931 0.374512 0.898743
1305031459.559647 -1.972616 0.044530 -0.140084 0.150460 0.179783 0.399172 0.886398
1305031459.591695 -1.993559 0.042352 -0.135802 0.148432 0.187105 0.415927 0.877476
1305031459.627608 -2.003735 0.036347 -0.131792 0.144468 0.188263 0.425019 0.873525
1305031459.659641 -2.016936 0.035681 -0.126307 0.145275 0.195655 0.425901 0.871334
1305031459.691604 -2.034220 0.027552 -0.122756 0.138612 0.207801 0.431730 0.866726
1305031459.727551 -2.047027 0.010990 -0.122791 0.131460 0.216082 0.434841 0.864257
1305031459.759635 -2.063035 -0.007163 -0.123706 0.130764 0.224131 0.432184 0.863645
1305031459.791650 -2.082409 -0.022782 -0.120494 0.131230 0.229570 0.428922 0.863772
1305031459.827664 -2.098358 -0.036451 -0.116666 0.130814 0.230838 0.426492 0.864700
1305031459.859660 -2.115275 -0.051949 -0.111704 0.127076 0.230788 0.425239 0.865887
1305031459.891596 -2.124074 -0.069101 -0.107695 0.121978 0.226018 0.428041 0.866498
1305031459.927607 -2.132437 -0.085674 -0.104465 0.121122 0.223245 0.431014 0.865863
1305031459.959650 -2.144403 -0.098726 -0.099438 0.120770 0.222056 0.433410 0.865021
1305031459.991725 -2.151443 -0.115074 -0.095195 0.116858 0.220367 0.437861 0.863748
1305031460.027565 -2.154983 -0.133293 -0.092674 0.114780 0.219530 0.441625 0.862322
1305031460.059659 -2.165710 -0.151906 -0.088975 0.115077 0.221306 0.443323 0.860956
1305031460.091717 -2.176320 -0.173321 -0.084961 0.116315 0.218065 0.449506 0.858407
1305031460.127690 -2.178074 -0.189611 -0.081002 0.121801 0.207925 0.458198 0.855562
1305031460.159678 -2.185954 -0.200927 -0.075439 0.129637 0.200493 0.464632 0.852710
1305031460.191559 -2.186481 -0.209685 -0.067529 0.130797 0.192205 0.471110 0.850885
1305031460.227761 -2.174540 -0.219524 -0.061461 0.130712 0.188501 0.475481 0.849294
1305031460.259667 -2.174625 -0.229716 -0.056946 0.133010 0.196049 0.475759 0.847070
1305031460.291689 -2.175837 -0.242701 -0.053695 0.132330 0.205474 0.475698 0.844974
1305031460.327512 -2.177854 -0.256608 -0.050577 0.132718 0.215041 0.477529 0.841492
1305031460.359630 -2.179371 -0.265607 -0.044285 0.131893 0.224206 0.480280 0.837656
1305031460.391611 -2.177052 -0.278780 -0.040566 0.127032 0.233966 0.484628 0.833222
1305031460.427477 -2.176660 -0.291449 -0.036308 0.125038 0.244591 0.489717 0.827477
1305031460.459620 -2.174768 -0.298152 -0.031435 0.122725 0.256438 0.494102 0.821609
1305031460.491504 -2.181413 -0.309737 -0.025858 0.115796 0.271951 0.500604 0.813652
1305031460.527570 -2.180525 -0.324051 -0.022981 0.107067 0.282021 0.510566 0.805185
1305031460.559647 -2.176424 -0.336447 -0.020002 0.099690 0.290431 0.514714 0.800488
1305031460.591855 -2.179369 -0.349911 -0.014937 0.095214 0.301001 0.515603 0.796547
1305031460.627625 -2.178025 -0.362869 -0.011265 0.091386 0.309296 0.518134 0.792163
1305031460.659764 -2.182457 -0.377073 -0.005220 0.089066 0.319056 0.517386 0.789039
1305031460.691671 -2.188760 -0.391014 0.002611 0.085903 0.325300 0.518187 0.786309
1305031460.727675 -2.186977 -0.402051 0.008924 0.080843 0.327204 0.518653 0.785749
1305031460.759667 -2.184900 -0.415556 0.014257 0.077015 0.332598 0.517612 0.784554
1305031460.791660 -2.188694 -0.430780 0.023293 0.073906 0.338582 0.516412 0.783083
1305031460.827660 -2.188458 -0.440803 0.031792 0.069606 0.340506 0.514071 0.784182
1305031460.859714 -2.185508 -0.450146 0.039098 0.063239 0.343896 0.511997 0.784599
1305031460.891774 -2.182782 -0.465963 0.046400 0.054622 0.349147 0.509952 0.784259
1305031460.927562 -2.181421 -0.481224 0.055676 0.048376 0.352020 0.509818 0.783472
1305031460.959649 -2.170312 -0.495975 0.058972 0.043032 0.350729 0.512974 0.782301
1305031460.991668 -2.163437 -0.509877 0.063650 0.042930 0.354424 0.513168 0.780512
1305031461.027620 -2.158172 -0.523899 0.070507 0.043620 0.356930 0.514079 0.778730
1305031461.059662 -2.157493 -0.535223 0.078483 0.047537 0.359469 0.513376 0.777796
1305031461.091728 -2.153376 -0.542701 0.086670 0.046748 0.357062 0.512972 0.779218
1305031461.127586 -2.141686 -0.553833 0.089668 0.043875 0.355843 0.511933 0.780625
1305031461.159720 -2.134595 -0.566130 0.094423 0.045363 0.357527 0.510180 0.780918
1305031461.192013 -2.132333 -0.570533 0.101058 0.049652 0.358946 0.505385 0.783121
1305031461.227607 -2.128302 -0.578226 0.106616 0.049942 0.360764 0.503019 0.783790
1305031461.259642 -2.121801 -0.586500 0.111577 0.051359 0.361284 0.499429 0.785752
1305031461.291656 -2.117761 -0.590327 0.117607 0.054153 0.362619 0.493298 0.788817
1305031461.327751 -2.111723 -0.590220 0.122839 0.056273 0.364854 0.488665 0.790520
1305031461.359709 -2.115623 -0.588540 0.131745 0.054602 0.369792 0.483984 0.791222
1305031461.391708 -2.101632 -0.600051 0.136802 0.044827 0.368312 0.486306 0.791103
1305031461.427624 -2.093344 -0.603809 0.139562 0.044095 0.368641 0.484582 0.792048
1305031461.459781 -2.092843 -0.601234 0.144139 0.042256 0.368595 0.485906 0.791358
1305031461.491677 -2.073412 -0.612785 0.140479 0.035372 0.365728 0.489124 0.791044
1305031461.527705 -2.073307 -0.609474 0.140612 0.042416 0.367867 0.485545 0.791910
1305031461.559677 -2.066665 -0.599874 0.136337 0.043516 0.367602 0.482444 0.793866
1305031461.591690 -2.063840 -0.597809 0.133084 0.043035 0.375362 0.478685 0.792535
1305031461.627541 -2.062254 -0.592361 0.132089 0.041100 0.380655 0.478236 0.790382
1305031461.659622 -2.058961 -0.589362 0.130889 0.038646 0.384930 0.478143 0.788489
1305031461.691563 -2.060790 -0.581269 0.131188 0.038923 0.387395 0.482466 0.784625
1305031461.727602 -2.052603 -0.575603 0.126889 0.036044 0.385471 0.488227 0.782142
1305031461.759684 -2.053996 -0.564213 0.122504 0.037465 0.386479 0.490040 0.780443
1305031461.791612 -2.052624 -0.551294 0.119207 0.035031 0.387122 0.494104 0.777670
1305031461.827615 -2.050201 -0.541218 0.115214 0.033650 0.390307 0.498496 0.773324
1305031461.859767 -2.057251 -0.524255 0.114432 0.035920 0.394247 0.503621 0.767884
1305031461.891723 -2.063824 -0.511586 0.115973 0.033593 0.395549 0.513584 0.760686
1305031461.927758 -2.060123 -0.500060 0.114831 0.028168 0.391419 0.522863 0.756711
1305031461.959703 -2.058825 -0.480987 0.108619 0.025690 0.392743 0.525589 0.754221
1305031461.991590 -2.071282 -0.472066 0.113390 0.019049 0.401418 0.531591 0.745595
1305031462.027675 -2.072209 -0.471381 0.116741 0.007998 0.399897 0.543011 0.738348
1305031462.059837 -2.074387 -0.465899 0.117910 0.005145 0.393634 0.554756 0.732988
1305031462.091777 -2.075312 -0.455370 0.115392 0.004648 0.385051 0.565505 0.729328
1305031462.127739 -2.078194 -0.444662 0.114864 0.003004 0.380134 0.573613 0.725573
1305031462.159646 -2.081022 -0.438470 0.114706 -0.000201 0.377077 0.579397 0.722573
1305031462.191641 -2.087198 -0.428449 0.115582 -0.002155 0.376115 0.578322 0.723931
1305031462.227633 -2.093513 -0.422841 0.116891 -0.008205 0.376198 0.579283 0.723076
1305031462.259765 -2.098817 -0.419156 0.119347 -0.015182 0.374864 0.578124 0.724583
1305031462.291629 -2.105376 -0.413708 0.122096 -0.021261 0.372083 0.574650 0.728615
1305031462.327540 -2.110181 -0.406257 0.122352 -0.028256 0.368364 0.570657 0.733389
1305031462.359732 -2.120237 -0.401059 0.127977 -0.035253 0.368779 0.564467 0.737656
1305031462.391695 -2.129504 -0.395530 0.132992 -0.043210 0.364201 0.560654 0.742400
1305031462.427635 -2.136462 -0.392158 0.136083 -0.052364 0.357658 0.557363 0.747452
1305031462.459897 -2.147744 -0.389169 0.137180 -0.059856 0.349921 0.552700 0.753986
1305031462.492008 -2.153268 -0.381702 0.137169 -0.068831 0.339572 0.549346 0.760376
1305031462.527670 -2.160652 -0.378373 0.137888 -0.073848 0.331595 0.545870 0.765909
1305031462.559862 -2.166443 -0.367740 0.134656 -0.075138 0.320780 0.539048 0.775165
1305031462.591862 -2.172205 -0.361408 0.130438 -0.077267 0.315941 0.530970 0.782485
1305031462.627851 -2.179839 -0.352484 0.125626 -0.077501 0.312536 0.520930 0.790536
1305031462.659660 -2.185029 -0.348540 0.119748 -0.078589 0.310973 0.511448 0.797208
1305031462.692548 -2.194932 -0.346611 0.115154 -0.077385 0.310651 0.501699 0.803621
1305031462.727652 -2.203916 -0.338859 0.109103 -0.075811 0.304796 0.490902 0.812630
1305031462.759782 -2.210504 -0.328507 0.101231 -0.074481 0.297110 0.480246 0.821914
1305031462.791943 -2.215744 -0.318970 0.092306 -0.074227 0.291082 0.472607 0.828495
1305031462.827816 -2.222516 -0.308199 0.082986 -0.074172 0.285112 0.467135 0.833663
1305031462.859782 -2.224997 -0.288962 0.073707 -0.073303 0.278506 0.460786 0.839486
1305031462.891847 -2.227278 -0.275018 0.061837 -0.072470 0.276909 0.456935 0.842187
1305031462.927607 -2.228793 -0.263633 0.048844 -0.071457 0.275214 0.454987 0.843883
1305031462.959676 -2.229879 -0.252900 0.036138 -0.069234 0.271602 0.451947 0.846867
1305031462.995550 -2.228615 -0.239402 0.023797 -0.062830 0.267258 0.446105 0.851831
1305031463.027667 -2.228841 -0.232362 0.008598 -0.056636 0.264424 0.439665 0.856485
1305031463.059810 -2.232505 -0.219320 -0.005825 -0.048648 0.259250 0.431363 0.862756
1305031463.095809 -2.229571 -0.202771 -0.017238 -0.044769 0.253328 0.421545 0.869552
1305031463.127550 -2.227281 -0.193774 -0.031304 -0.040456 0.251670 0.411959 0.874823
1305031463.159787 -2.227991 -0.181025 -0.045810 -0.033230 0.250140 0.402061 0.880155
1305031463.195657 -2.227885 -0.166838 -0.059616 -0.030955 0.247756 0.394628 0.884267
1305031463.227784 -2.218180 -0.157585 -0.070821 -0.032331 0.243589 0.389650 0.887577
1305031463.260034 -2.213256 -0.146213 -0.083452 -0.024862 0.243224 0.384682 0.890080
1305031463.295737 -2.212362 -0.133280 -0.095850 -0.020148 0.242486 0.378945 0.892858
1305031463.327739 -2.203200 -0.126537 -0.105130 -0.021553 0.237770 0.375485 0.895551
1305031463.359750 -2.195004 -0.117296 -0.115588 -0.014550 0.233101 0.372249 0.898266
1305031463.395630 -2.189338 -0.098546 -0.125235 -0.005591 0.227577 0.367333 0.901800
1305031463.427716 -2.177991 -0.085203 -0.133964 -0.004282 0.222832 0.363277 0.904631
1305031463.459756 -2.167192 -0.070334 -0.142656 -0.001561 0.221032 0.360254 0.906289
1305031463.495629 -2.154275 -0.055392 -0.151551 -0.000960 0.220600 0.358119 0.907241
1305031463.527670 -2.140634 -0.047988 -0.162512 -0.000840 0.223646 0.356816 0.907008
1305031463.559751 -2.136182 -0.040250 -0.173531 0.002757 0.227706 0.356971 0.905933
1305031463.595600 -2.125800 -0.030643 -0.184366 0.003401 0.224349 0.356902 0.906795
1305031463.627588 -2.105531 -0.024344 -0.196709 0.004650 0.219768 0.355509 0.908457
1305031463.659766 -2.097568 -0.017591 -0.209990 0.013254 0.223652 0.351444 0.909006
1305031463.695640 -2.092694 -0.003954 -0.223193 0.020227 0.224688 0.346547 0.910501
1305031463.727588 -2.068450 0.000021 -0.239450 0.018222 0.220159 0.344149 0.912556
1305031463.759674 -2.050368 0.000318 -0.257416 0.022197 0.222654 0.338139 0.914108
1305031463.795647 -2.041471 0.006596 -0.276000 0.028481 0.226253 0.327522 0.916912
1305031463.827761 -2.025100 0.008828 -0.294348 0.028253 0.226307 0.317076 0.920570
1305031463.859910 -2.008980 0.004871 -0.313066 0.028515 0.228567 0.306891 0.923451
1305031463.895648 -1.999279 0.009576 -0.330144 0.034266 0.231374 0.297249 0.925708
1305031463.927664 -1.989410 0.009086 -0.345309 0.035747 0.231025 0.291053 0.927706
1305031463.959680 -1.974761 0.004570 -0.363501 0.036928 0.226661 0.284774 0.930680
1305031463.995821 -1.962711 0.005145 -0.383339 0.042378 0.223318 0.277252 0.933522
1305031464.027703 -1.952833 0.008489 -0.401784 0.045781 0.220326 0.268381 0.936660
1305031464.059652 -1.936623 0.002420 -0.421856 0.045315 0.218592 0.259506 0.939585
1305031464.095634 -1.930184 -0.000048 -0.439608 0.049744 0.221399 0.249991 0.941282
1305031464.127681 -1.929744 -0.002952 -0.452519 0.053739 0.222987 0.244582 0.942109
1305031464.159817 -1.923393 -0.013626 -0.467402 0.057942 0.219358 0.242402 0.943274
1305031464.195585 -1.918396 -0.019184 -0.482366 0.068835 0.212901 0.237197 0.945342
1305031464.227624 -1.919631 -0.014003 -0.495112 0.082783 0.204298 0.231677 0.947489
1305031464.259644 -1.920152 -0.007811 -0.506570 0.092793 0.190695 0.227582 0.950385
1305031464.295667 -1.908734 -0.004172 -0.519620 0.097756 0.172117 0.221014 0.954972
1305031464.327866 -1.891869 -0.001148 -0.534243 0.101400 0.156434 0.213601 0.958969
1305031464.359684 -1.875067 -0.003618 -0.549503 0.105651 0.145458 0.207234 0.961631
1305031464.395611 -1.856941 0.006523 -0.563769 0.113445 0.138087 0.197589 0.963857
1305031464.427634 -1.843573 0.011424 -0.578897 0.116106 0.136887 0.187611 0.965704
1305031464.459689 -1.834563 0.007288 -0.595336 0.117890 0.135515 0.178482 0.967410
1305031464.495633 -1.815802 0.012339 -0.613706 0.121186 0.131131 0.171779 0.968819
1305031464.527574 -1.805915 0.016494 -0.630687 0.123568 0.131453 0.163834 0.969850
1305031464.559703 -1.789649 0.016499 -0.649066 0.121291 0.128874 0.151685 0.972456
1305031464.595698 -1.763111 0.000501 -0.678673 0.120199 0.130834 0.140878 0.973955
1305031464.627672 -1.748399 -0.000447 -0.700109 0.129861 0.142490 0.132882 0.972201
1305031464.659749 -1.738975 -0.002030 -0.716900 0.138916 0.155882 0.120590 0.970495
1305031464.695663 -1.731348 -0.023270 -0.734757 0.148059 0.169340 0.104655 0.968736
1305031464.727652 -1.734445 -0.022344 -0.739809 0.167046 0.179293 0.087926 0.965515
1305031464.759740 -1.731747 -0.009738 -0.744089 0.182323 0.180948 0.068350 0.964025
1305031464.796021 -1.731844 -0.020278 -0.744697 0.188433 0.179039 0.049389 0.964365
1305031464.827759 -1.731894 -0.022319 -0.743355 0.200098 0.168775 0.033083 0.964563
1305031464.859654 -1.718475 -0.008295 -0.743378 0.209650 0.151529 0.015300 0.965843
1305031464.895817 -1.697839 -0.006081 -0.744480 0.208413 0.134726 -0.007246 0.968690
1305031464.927799 -1.674371 -0.030551 -0.750887 0.201895 0.121792 -0.030246 0.971334
1305031464.959763 -1.651881 -0.048167 -0.753271 0.203077 0.115274 -0.049474 0.971094
1305031464.995687 -1.630217 -0.049403 -0.749658 0.209620 0.112953 -0.068288 0.968833
1305031465.027823 -1.621693 -0.053704 -0.736005 0.213143 0.115289 -0.089764 0.966034
1305031465.059749 -1.617949 -0.037631 -0.713789 0.222531 0.112243 -0.109058 0.962283
1305031465.095700 -1.597498 0.000150 -0.689235 0.224097 0.100351 -0.126624 0.961081
1305031465.127664 -1.578362 0.005301 -0.671007 0.207097 0.088087 -0.143404 0.963736
1305031465.159842 -1.564678 -0.001018 -0.653426 0.189004 0.077164 -0.154159 0.966725
1305031465.195564 -1.545866 -0.004520 -0.637483 0.175911 0.065509 -0.163032 0.968599
1305031465.227907 -1.524426 0.004389 -0.619208 0.166084 0.055257 -0.169861 0.969799
1305031465.259807 -1.511375 -0.001907 -0.600610 0.153261 0.046099 -0.171948 0.972018
1305031465.295623 -1.493137 0.005696 -0.584706 0.150073 0.033788 -0.164191 0.974360
1305031465.327674 -1.476613 0.014453 -0.567451 0.144225 0.018751 -0.153602 0.977371
1305031465.359948 -1.463445 0.011554 -0.554414 0.138365 0.001172 -0.144596 0.979768
1305031465.395586 -1.435527 0.012784 -0.547037 0.138744 -0.021411 -0.136227 0.980680
1305031465.427697 -1.404937 0.018460 -0.540937 0.141363 -0.039996 -0.127302 0.980924
1305031465.460125 -1.378648 0.031570 -0.535145 0.145246 -0.055259 -0.115717 0.981050
1305031465.495703 -1.350661 0.046310 -0.528807 0.144464 -0.069446 -0.107984 0.981146
1305031465.527622 -1.329245 0.040692 -0.525706 0.139922 -0.080993 -0.106166 0.981117
1305031465.559812 -1.299232 0.049171 -0.523863 0.146429 -0.094153 -0.101241 0.979512
1305031465.595599 -1.269960 0.063333 -0.521054 0.152766 -0.102703 -0.092872 0.978514
1305031465.627688 -1.251598 0.078254 -0.519727 0.157903 -0.108561 -0.083655 0.977897
1305031465.660060 -1.227675 0.091066 -0.517643 0.162184 -0.121447 -0.076405 0.976273
1305031465.695668 -1.192481 0.103180 -0.512184 0.168032 -0.134387 -0.070288 0.974046
1305031465.727682 -1.167540 0.118596 -0.509134 0.175603 -0.140733 -0.061154 0.972429
1305031465.759766 -1.140921 0.137878 -0.504055 0.183511 -0.148730 -0.052445 0.970285
1305031465.795937 -1.112590 0.152355 -0.496914 0.188965 -0.155356 -0.046186 0.968516
1305031465.827996 -1.086250 0.162553 -0.492294 0.196813 -0.161751 -0.040188 0.966171
1305031465.859861 -1.057918 0.189569 -0.483886 0.210142 -0.166520 -0.034970 0.962750
1305031465.895494 -1.028770 0.208708 -0.472908 0.214468 -0.164955 -0.031317 0.962192
1305031465.927495 -1.003169 0.216184 -0.467458 0.219391 -0.160387 -0.027953 0.961957
1305031465.959710 -0.979349 0.236300 -0.462937 0.231864 -0.154239 -0.026485 0.960077
1305031465.995753 -0.963446 0.258889 -0.459270 0.241129 -0.147309 -0.028167 0.958835
1305031466.027644 -0.945775 0.282477 -0.455616 0.248734 -0.145464 -0.028742 0.957155
1305031466.059757 -0.929071 0.307877 -0.449645 0.249482 -0.144222 -0.027242 0.957192
1305031466.095840 -0.915394 0.324978 -0.448202 0.245362 -0.145719 -0.027398 0.958025
1305031466.127640 -0.897718 0.341869 -0.446544 0.240411 -0.151224 -0.028725 0.958389
1305031466.160428 -0.883475 0.358800 -0.449397 0.235479 -0.156599 -0.028237 0.958764
1305031466.195833 -0.868703 0.378480 -0.451844 0.228860 -0.165306 -0.029803 0.958858
1305031466.227951 -0.847911 0.387823 -0.453332 0.218026 -0.175013 -0.036828 0.959416
1305031466.259815 -0.821438 0.386866 -0.456477 0.214271 -0.179913 -0.045302 0.958993
1305031466.295737 -0.797217 0.399156 -0.459303 0.219320 -0.175380 -0.055740 0.958141
1305031466.327702 -0.779256 0.413926 -0.466960 0.222296 -0.164100 -0.063205 0.958990
1305031466.359829 -0.764361 0.422776 -0.475850 0.217916 -0.154150 -0.068057 0.961311
1305031466.395784 -0.751634 0.416512 -0.491007 0.214786 -0.150090 -0.072146 0.962359
1305031466.427819 -0.736927 0.432275 -0.499108 0.223159 -0.151450 -0.076061 0.959936
1305031466.459790 -0.717093 0.446164 -0.501217 0.224461 -0.156768 -0.081057 0.958369
1305031466.495809 -0.692769 0.451208 -0.500314 0.220460 -0.162652 -0.083195 0.958134
1305031466.527538 -0.666197 0.451680 -0.498441 0.218295 -0.163676 -0.083664 0.958414
1305031466.560353 -0.646316 0.465200 -0.497813 0.219140 -0.160002 -0.084664 0.958754
1305031466.595936 -0.625322 0.473250 -0.495133 0.212262 -0.159725 -0.088364 0.960013
1305031466.627549 -0.599246 0.458102 -0.494917 0.203436 -0.160103 -0.093546 0.961369
1305031466.659688 -0.578842 0.461855 -0.495835 0.210953 -0.156852 -0.097796 0.959861
1305031466.695822 -0.560252 0.480400 -0.492411 0.216280 -0.156149 -0.105020 0.958025
1305031466.728074 -0.538361 0.478292 -0.488765 0.210084 -0.158360 -0.115490 0.957835
1305031466.759637 -0.517158 0.466951 -0.489025 0.210467 -0.158904 -0.123574 0.956652
1305031466.795604 -0.501054 0.480411 -0.489185 0.220448 -0.158497 -0.128839 0.953772
1305031466.827879 -0.482878 0.488037 -0.485610 0.219755 -0.162671 -0.133011 0.952656
1305031466.859665 -0.470394 0.480613 -0.488761 0.215112 -0.168085 -0.134111 0.952622
1305031466.895694 -0.455870 0.485287 -0.489525 0.219142 -0.179370 -0.136750 0.949264
1305031466.927756 -0.436022 0.487032 -0.488062 0.219461 -0.194579 -0.141779 0.945450
1305031466.959728 -0.412010 0.482426 -0.486188 0.218961 -0.207429 -0.145095 0.942325
1305031466.995712 -0.391596 0.482523 -0.483711 0.220412 -0.213614 -0.148740 0.940034
1305031467.027843 -0.374488 0.482056 -0.482988 0.221359 -0.217637 -0.153773 0.938077
1305031467.059700 -0.354885 0.482406 -0.480160 0.222593 -0.221275 -0.157341 0.936341
1305031467.095687 -0.339658 0.482952 -0.478932 0.221591 -0.221622 -0.163038 0.935521
1305031467.128974 -0.326207 0.479224 -0.478110 0.222608 -0.223047 -0.173894 0.932983
1305031467.159660 -0.311802 0.479528 -0.476956 0.225710 -0.225122 -0.181922 0.930204
1305031467.195663 -0.300185 0.481169 -0.476825 0.227735 -0.228595 -0.186948 0.927864
1305031467.227704 -0.285631 0.480620 -0.475421 0.228956 -0.235103 -0.193397 0.924610
1305031467.259694 -0.270309 0.479040 -0.473977 0.231037 -0.240616 -0.198883 0.921505
1305031467.295846 -0.255869 0.480506 -0.473316 0.234264 -0.245153 -0.205707 0.917990
1305031467.328008 -0.240268 0.482755 -0.473112 0.236552 -0.250321 -0.211401 0.914709
1305031467.359654 -0.224706 0.488497 -0.472274 0.235327 -0.256187 -0.214955 0.912570
1305031467.395756 -0.210372 0.487150 -0.471098 0.229674 -0.262752 -0.221580 0.910557
1305031467.427783 -0.196174 0.482605 -0.470978 0.227285 -0.268386 -0.226636 0.908266
1305031467.459200 -0.180579 0.485366 -0.472168 0.228093 -0.274637 -0.229615 0.905442
1305031467.496058 -0.162125 0.489247 -0.470178 0.225463 -0.281302 -0.236155 0.902367
1305031467.527663 -0.146628 0.482520 -0.467024 0.220169 -0.284449 -0.244165 0.900554
1305031467.559763 -0.132739 0.475991 -0.465386 0.220058 -0.285956 -0.247172 0.899283
1305031467.595989 -0.120298 0.475096 -0.464351 0.220393 -0.287726 -0.246313 0.898872
1305031467.627532 -0.112574 0.460779 -0.464712 0.218298 -0.293357 -0.245523 0.897779
1305031467.659626 -0.099373 0.451843 -0.461963 0.223393 -0.301339 -0.242460 0.894708
1305031467.695886 -0.085857 0.447737 -0.455002 0.227612 -0.306520 -0.244047 0.891448
1305031467.727535 -0.079996 0.433464 -0.448229 0.231309 -0.308815 -0.248888 0.888360
1305031467.759907 -0.072909 0.423592 -0.443336 0.237687 -0.311445 -0.250520 0.885295
1305031467.796075 -0.066475 0.414022 -0.435285 0.242111 -0.314924 -0.253040 0.882143
1305031467.827800 -0.064261 0.396167 -0.426609 0.245764 -0.318851 -0.253894 0.879472
1305031467.859729 -0.062092 0.383665 -0.419926 0.252097 -0.324623 -0.250674 0.876487
1305031467.895947 -0.058999 0.375463 -0.410145 0.257139 -0.332682 -0.250596 0.872011
1305031467.927754 -0.058353 0.357481 -0.396997 0.259201 -0.340998 -0.254450 0.867058
1305031467.959826 -0.056355 0.338435 -0.384452 0.264788 -0.347897 -0.255361 0.862349
1305031467.995754 -0.050660 0.332415 -0.366736 0.270508 -0.351537 -0.256843 0.858649
1305031468.028107 -0.056342 0.310150 -0.352840 0.268222 -0.352451 -0.260711 0.857826
1305031468.059850 -0.059840 0.290294 -0.345709 0.272476 -0.354740 -0.263113 0.854803
1305031468.095867 -0.057720 0.279056 -0.330820 0.275787 -0.359324 -0.264710 0.851326
1305031468.127816 -0.060896 0.255706 -0.318720 0.273312 -0.362545 -0.266787 0.850110
1305031468.159864 -0.061361 0.236672 -0.308860 0.275215 -0.364898 -0.269805 0.847533
1305031468.195985 -0.059631 0.216422 -0.297368 0.274909 -0.366496 -0.273530 0.845746
1305031468.228158 -0.060708 0.190121 -0.289765 0.271813 -0.367148 -0.274277 0.846223
1305031468.259754 -0.059347 0.166771 -0.281570 0.270681 -0.367521 -0.272943 0.846854
1305031468.295830 -0.060162 0.143272 -0.275751 0.269122 -0.366307 -0.273365 0.847741
1305031468.327847 -0.061304 0.111186 -0.273547 0.267478 -0.366320 -0.271733 0.848779
1305031468.359787 -0.057955 0.094620 -0.269965 0.270719 -0.365794 -0.266449 0.849653
1305031468.395860 -0.057363 0.079673 -0.266788 0.268950 -0.364836 -0.266657 0.850562
1305031468.428025 -0.060433 0.050485 -0.270056 0.262257 -0.365086 -0.268323 0.852019
1305031468.459759 -0.059850 0.029462 -0.269387 0.260330 -0.367094 -0.266389 0.852354
1305031468.495809 -0.060837 0.009958 -0.267848 0.257805 -0.366263 -0.267310 0.853190
1305031468.527756 -0.069102 -0.015161 -0.275363 0.257117 -0.362911 -0.273222 0.852957
1305031468.559739 -0.074947 -0.035580 -0.283580 0.263212 -0.361529 -0.280305 0.849380
1305031468.595768 -0.075552 -0.044230 -0.286271 0.267703 -0.361674 -0.284905 0.846378
1305031468.627626 -0.082947 -0.061930 -0.291998 0.261095 -0.362037 -0.287944 0.847258
1305031468.659579 -0.098597 -0.085474 -0.306712 0.257296 -0.363316 -0.291635 0.846610
1305031468.695835 -0.106297 -0.102877 -0.314647 0.260418 -0.369062 -0.295013 0.841987
1305031468.727785 -0.111095 -0.115460 -0.316790 0.264188 -0.375993 -0.295754 0.837475
1305031468.759628 -0.116919 -0.130055 -0.319743 0.264667 -0.381049 -0.296549 0.834753
1305031468.795796 -0.126532 -0.151220 -0.327520 0.267319 -0.382835 -0.301174 0.831428
1305031468.829247 -0.133135 -0.162167 -0.332024 0.276244 -0.384349 -0.305247 0.826311
1305031468.859659 -0.133826 -0.167884 -0.325962 0.281225 -0.385014 -0.308078 0.823265
1305031468.895873 -0.140892 -0.180048 -0.328958 0.279420 -0.380064 -0.309700 0.825568
1305031468.928141 -0.147392 -0.188241 -0.330700 0.276261 -0.375482 -0.306583 0.829880
1305031468.959594 -0.152454 -0.188437 -0.331836 0.271715 -0.370215 -0.303368 0.834913
1305031468.995711 -0.156620 -0.179778 -0.327669 0.262666 -0.364892 -0.308352 0.838319
1305031469.027699 -0.168310 -0.193820 -0.328941 0.244144 -0.359138 -0.318572 0.842571
1305031469.059832 -0.181055 -0.202795 -0.331482 0.232307 -0.354611 -0.328009 0.844212
1305031469.095723 -0.183813 -0.211375 -0.322696 0.223510 -0.352441 -0.339929 0.842779
1305031469.127679 -0.191429 -0.226530 -0.314944 0.212618 -0.344347 -0.351659 0.844130
1305031469.159703 -0.200915 -0.236171 -0.309104 0.204961 -0.333962 -0.359428 0.846919
1305031469.195540 -0.214318 -0.246251 -0.305976 0.198582 -0.322841 -0.365022 0.850352
1305031469.227754 -0.226633 -0.248518 -0.302526 0.196191 -0.315415 -0.367748 0.852516
1305031469.259586 -0.233313 -0.252537 -0.293532 0.192766 -0.312447 -0.371754 0.852653
1305031469.296754 -0.242485 -0.257020 -0.285931 0.188994 -0.307063 -0.374213 0.854376
1305031469.327618 -0.250122 -0.255691 -0.276927 0.185612 -0.303188 -0.375765 0.855819
1305031469.359592 -0.255140 -0.265488 -0.262599 0.179257 -0.298910 -0.381313 0.856225
1305031469.395695 -0.263267 -0.270868 -0.250846 0.180140 -0.287649 -0.384866 0.858304
1305031469.427651 -0.269259 -0.267928 -0.240093 0.184494 -0.275368 -0.388257 0.859878
1305031469.459668 -0.279598 -0.263921 -0.228779 0.187123 -0.264025 -0.393237 0.860605
1305031469.495744 -0.292023 -0.257113 -0.218402 0.188893 -0.257105 -0.395234 0.861398
1305031469.527622 -0.297854 -0.250490 -0.205775 0.186688 -0.257168 -0.395647 0.861670
1305031469.559645 -0.302712 -0.248315 -0.191037 0.180339 -0.258253 -0.397200 0.861984
1305031469.595755 -0.306809 -0.245084 -0.176189 0.172335 -0.259097 -0.397817 0.863082
1305031469.627752 -0.313072 -0.241898 -0.162680 0.163144 -0.256925 -0.399098 0.864924
1305031469.659590 -0.323762 -0.236515 -0.148269 0.158650 -0.252285 -0.399243 0.867057
1305031469.695613 -0.328669 -0.230984 -0.134483 0.154765 -0.249573 -0.398196 0.869023
1305031469.727679 -0.336720 -0.224289 -0.121349 0.149933 -0.244864 -0.397000 0.871753
1305031469.759599 -0.343422 -0.215058 -0.108783 0.144623 -0.241265 -0.394554 0.874758
1305031469.795621 -0.355147 -0.201930 -0.094418 0.139334 -0.239085 -0.392359 0.877199
1305031469.827526 -0.363305 -0.193301 -0.084127 0.132832 -0.240622 -0.391654 0.878103
1305031469.859574 -0.373410 -0.179002 -0.072185 0.126729 -0.241438 -0.390120 0.879462
1305031469.895755 -0.383467 -0.164638 -0.062000 0.122107 -0.242152 -0.387951 0.880878
1305031469.927854 -0.395028 -0.148676 -0.050641 0.119081 -0.243950 -0.384999 0.882091
1305031469.959805 -0.405360 -0.134059 -0.042953 0.116924 -0.247099 -0.383271 0.882255
1305031469.995551 -0.415181 -0.118971 -0.036790 0.115002 -0.249051 -0.381709 0.882636
1305031470.027694 -0.424202 -0.103737 -0.032469 0.112635 -0.251092 -0.381521 0.882444
1305031470.059638 -0.435408 -0.086484 -0.028318 0.111391 -0.250741 -0.381036 0.882911
1305031470.095944 -0.445297 -0.070941 -0.026403 0.109805 -0.250539 -0.379451 0.883849
1305031470.127633 -0.454400 -0.054855 -0.025098 0.105726 -0.250530 -0.377841 0.885038
1305031470.159626 -0.466063 -0.036581 -0.022059 0.103228 -0.251252 -0.374760 0.886438
1305031470.196092 -0.475389 -0.022148 -0.023516 0.100002 -0.253032 -0.372665 0.887184
1305031470.227618 -0.484409 -0.007585 -0.025120 0.095337 -0.253332 -0.370391 0.888563
1305031470.259965 -0.494088 0.007377 -0.026419 0.090580 -0.252925 -0.368292 0.890048
1305031470.295718 -0.503528 0.021879 -0.028166 0.084572 -0.251892 -0.366952 0.891484
1305031470.327644 -0.514690 0.037371 -0.028373 0.077938 -0.251375 -0.364709 0.893154
1305031470.359624 -0.525830 0.052431 -0.029977 0.072042 -0.252462 -0.360941 0.894871
1305031470.395823 -0.536158 0.066902 -0.032063 0.067872 -0.254107 -0.358169 0.895845
1305031470.427641 -0.547232 0.080794 -0.034039 0.066912 -0.255705 -0.358832 0.895197
1305031470.459721 -0.558206 0.093658 -0.037749 0.067478 -0.256997 -0.358463 0.894932
1305031470.495686 -0.567756 0.104747 -0.042463 0.067610 -0.259237 -0.357034 0.894847
1305031470.527689 -0.576297 0.113739 -0.047068 0.066634 -0.260914 -0.357465 0.894261
1305031470.559677 -0.585951 0.124359 -0.050663 0.065715 -0.260150 -0.356703 0.894855
1305031470.595760 -0.595119 0.132777 -0.054906 0.063758 -0.260467 -0.353902 0.896016
1305031470.627729 -0.604216 0.141839 -0.057639 0.060686 -0.260723 -0.350059 0.897663
1305031470.659690 -0.613281 0.149067 -0.060850 0.057720 -0.261455 -0.346675 0.898958
1305031470.695630 -0.622743 0.157756 -0.063172 0.054837 -0.262372 -0.343983 0.899905
1305031470.727654 -0.632347 0.162454 -0.065907 0.053160 -0.263790 -0.342203 0.900270
1305031470.759682 -0.636279 0.165752 -0.069805 0.050898 -0.263731 -0.338817 0.901697
1305031470.795615 -0.645484 0.174222 -0.069332 0.050752 -0.259987 -0.333959 0.904600
1305031470.827831 -0.655370 0.180076 -0.072552 0.054071 -0.260558 -0.329094 0.906026
1305031470.859645 -0.663518 0.183625 -0.077649 0.057189 -0.262716 -0.324121 0.907003
1305031470.895722 -0.671060 0.188691 -0.083792 0.060166 -0.265227 -0.318515 0.908066
1305031470.927684 -0.681259 0.190898 -0.089063 0.062021 -0.268838 -0.314654 0.908225
1305031470.959647 -0.689565 0.189828 -0.096630 0.067605 -0.274201 -0.311547 0.907294
1305031470.995996 -0.693118 0.191701 -0.102377 0.075163 -0.278911 -0.307282 0.906718
1305031471.027644 -0.700840 0.190846 -0.108986 0.081830 -0.279282 -0.303564 0.907279
1305031471.059636 -0.708641 0.193007 -0.117500 0.090714 -0.277833 -0.296955 0.909064
1305031471.095777 -0.715955 0.196362 -0.125848 0.097413 -0.278150 -0.288241 0.911076
1305031471.127663 -0.722279 0.196712 -0.132255 0.101172 -0.280936 -0.280789 0.912138
1305031471.159649 -0.724960 0.200151 -0.136452 0.107540 -0.283900 -0.273126 0.912819
1305031471.195703 -0.729005 0.203305 -0.140376 0.110334 -0.283364 -0.265916 0.914779
1305031471.227569 -0.735847 0.206164 -0.145302 0.110476 -0.280542 -0.260347 0.917230
1305031471.259722 -0.742931 0.205837 -0.149459 0.108761 -0.279093 -0.257326 0.918728
1305031471.296068 -0.748806 0.204075 -0.153457 0.108074 -0.278316 -0.252806 0.920298
1305031471.327642 -0.750245 0.205609 -0.156624 0.112732 -0.276882 -0.248011 0.921476
1305031471.359615 -0.752321 0.208960 -0.159804 0.115476 -0.270464 -0.243734 0.924180
1305031471.395730 -0.761745 0.205686 -0.167177 0.113343 -0.262107 -0.238792 0.928133
1305031471.427704 -0.767725 0.210182 -0.173560 0.117792 -0.259909 -0.230326 0.930334
1305031471.459647 -0.769928 0.213815 -0.177269 0.118873 -0.261951 -0.224811 0.930973
1305031471.496491 -0.773484 0.214327 -0.180889 0.116924 -0.262329 -0.220943 0.932039
1305031471.527624 -0.776849 0.215338 -0.185443 0.115888 -0.262430 -0.216489 0.933185
1305031471.559671 -0.777155 0.216596 -0.188571 0.115651 -0.262434 -0.214121 0.933759
1305031471.595702 -0.778955 0.217471 -0.192463 0.115752 -0.258670 -0.211280 0.935442
1305031471.627621 -0.780625 0.218742 -0.196521 0.116626 -0.254550 -0.208729 0.937035
1305031471.659642 -0.782754 0.219634 -0.200859 0.118134 -0.250130 -0.204492 0.938969
1305031471.695609 -0.784093 0.223543 -0.205644 0.120629 -0.246632 -0.198205 0.940923
1305031471.727501 -0.784113 0.226938 -0.208069 0.120288 -0.244312 -0.193186 0.942614
1305031471.759702 -0.784162 0.225145 -0.209788 0.117224 -0.242015 -0.187077 0.944822
1305031471.795801 -0.783974 0.229602 -0.212572 0.118704 -0.237125 -0.177570 0.947708
1305031471.827639 -0.786648 0.236761 -0.213778 0.117215 -0.232119 -0.170302 0.950462
1305031471.859665 -0.788720 0.237065 -0.214355 0.111946 -0.229952 -0.164697 0.952610
1305031471.895604 -0.789873 0.242640 -0.214966 0.109543 -0.226911 -0.157493 0.954834
1305031471.927651 -0.791564 0.244672 -0.213986 0.103812 -0.222999 -0.154086 0.956949
1305031471.959643 -0.795352 0.241011 -0.214943 0.100033 -0.216486 -0.152529 0.959094
1305031471.995573 -0.797223 0.253019 -0.216581 0.105021 -0.208992 -0.145820 0.961265
1305031472.027638 -0.802541 0.257187 -0.215423 0.098648 -0.202688 -0.143265 0.963671
1305031472.059668 -0.807423 0.254489 -0.216628 0.093709 -0.198533 -0.141143 0.965340
1305031472.095601 -0.810992 0.261569 -0.217309 0.096159 -0.194379 -0.134045 0.966955
1305031472.127594 -0.816767 0.267680 -0.216103 0.092546 -0.191133 -0.131027 0.968367
1305031472.159645 -0.822394 0.260652 -0.217602 0.084396 -0.190354 -0.131339 0.969223
1305031472.195682 -0.826108 0.261549 -0.219464 0.087406 -0.190398 -0.125845 0.969676
1305031472.227626 -0.827247 0.265344 -0.220044 0.091044 -0.191225 -0.122217 0.969643
1305031472.263840 -0.830354 0.260658 -0.221748 0.090923 -0.190308 -0.121598 0.969912
1305031472.295671 -0.831837 0.260377 -0.224446 0.097516 -0.189590 -0.117693 0.969894
1305031472.327678 -0.832222 0.266130 -0.225959 0.105791 -0.189539 -0.114042 0.969473
1305031472.363577 -0.833769 0.268588 -0.226991 0.107461 -0.189767 -0.112496 0.969425
1305031472.395599 -0.837015 0.264573 -0.228775 0.105391 -0.191238 -0.111935 0.969428
1305031472.427686 -0.837358 0.261392 -0.230238 0.106332 -0.195251 -0.111812 0.968539
1305031472.463603 -0.835362 0.259625 -0.230457 0.108730 -0.198134 -0.112519 0.967605
1305031472.495626 -0.834316 0.258416 -0.230618 0.109735 -0.197266 -0.112705 0.967648
1305031472.527625 -0.836904 0.251294 -0.232851 0.107673 -0.194678 -0.112187 0.968463
1305031472.563587 -0.837173 0.246728 -0.235405 0.111567 -0.196222 -0.109920 0.967971
1305031472.595675 -0.833489 0.249334 -0.235877 0.118047 -0.200092 -0.106286 0.966815
1305031472.627701 -0.832202 0.245879 -0.235826 0.117507 -0.202150 -0.104799 0.966615
1305031472.663575 -0.831673 0.240366 -0.236030 0.116854 -0.203549 -0.103736 0.966515
1305031472.695755 -0.830929 0.236267 -0.236397 0.118143 -0.205207 -0.102372 0.966154
1305031472.727628 -0.829905 0.232087 -0.236522 0.120319 -0.206873 -0.102328 0.965534
1305031472.763578 -0.828221 0.229596 -0.235808 0.123222 -0.207760 -0.103086 0.964897
1305031472.795640 -0.828578 0.225378 -0.235879 0.125090 -0.206701 -0.104222 0.964762
1305031472.827627 -0.829327 0.222940 -0.236044 0.128086 -0.206003 -0.103609 0.964584
1305031472.863598 -0.830754 0.222254 -0.236059 0.130737 -0.206136 -0.101920 0.964380
1305031472.895713 -0.831165 0.221604 -0.235612 0.130989 -0.208205 -0.099889 0.964113
1305031472.927685 -0.830496 0.217795 -0.234481 0.129483 -0.210661 -0.098907 0.963885
1305031472.963756 -0.830755 0.217457 -0.233948 0.130500 -0.210998 -0.097471 0.963820
1305031472.995704 -0.832586 0.216758 -0.233640 0.129795 -0.211534 -0.096781 0.963867
1305031473.027638 -0.832790 0.216000 -0.232877 0.129497 -0.213449 -0.097148 0.963448
1305031473.063684 -0.832494 0.213459 -0.232184 0.128517 -0.214548 -0.098785 0.963169
1305031473.095695 -0.832341 0.212657 -0.232061 0.129906 -0.213836 -0.100422 0.962971
1305031473.127744 -0.834369 0.211811 -0.232459 0.130335 -0.211956 -0.101579 0.963208
1305031473.167060 -0.836110 0.210583 -0.233627 0.131083 -0.212102 -0.101831 0.963048
